Language model created by QuickLM on Tue Aug  5 14:47:51 EDT 2014
Copyright (c) 1996-2010 Carnegie Mellon University and Alexander I. Rudnicky

The model is in standard ARPA format, designed by Doug Paul while he was at MITRE.

The code that was used to produce this language model is available in Open Source.
Please visit http://www.speech.cs.cmu.edu/tools/ for more information

The (fixed) discount mass is 0.5. The backoffs are computed using the ratio method.
This model based on a corpus of 62 sentences and 65 words

\data\
ngram 1=65
ngram 2=125
ngram 3=65

\1-grams:
-0.7851 </s> -0.3010
-0.7851 <s> -0.2232
-2.5775 ABSOLUTELY -0.2232
-2.5775 AGAIN -0.2232
-2.5775 BAD -0.2232
-2.5775 BEGIN -0.2232
-2.5775 CANCEL -0.2232
-2.5775 CURRENT -0.2232
-2.5775 FIRST -0.2232
-2.5775 FIVE -0.2232
-2.5775 FOUR -0.2232
-2.5775 GOOD -0.2232
-2.5775 GOODBYE -0.2232
-2.5775 HALT -0.2232
-2.5775 HEIGHT -0.2232
-2.5775 HEY -0.2232
-2.5775 HI -0.2232
-2.5775 LAST -0.2232
-2.5775 LESS -0.2232
-2.5775 LISTEN -0.2232
-2.5775 LOUD -0.2232
-2.5775 LOUDER -0.2232
-2.5775 LOWER -0.2232
-2.5775 MINUS -0.2232
-2.5775 MORE -0.2232
-2.5775 MUSIC -0.2232
-2.5775 NEXT -0.2232
-2.5775 NINE -0.2232
-2.2765 NO -0.2218
-2.5775 NOPE -0.2232
-2.5775 OKAY -0.2232
-2.5775 ONE -0.2232
-2.5775 PLAY -0.2232
-2.5775 PLUS -0.2232
-2.5775 PREVIOUS -0.2232
-2.5775 QUIET -0.2232
-2.5775 RADIO -0.2232
-2.5775 RUN -0.2232
-2.5775 SELECTED -0.2232
-2.5775 SEVEN -0.2232
-2.5775 SHUT -0.2987
-2.5775 SHUTDOWN -0.2232
-2.5775 SILENCE -0.2232
-2.5775 SIX -0.2232
-2.5775 SLEEP -0.2232
-2.5775 SOFT -0.2232
-2.5775 SOFTER -0.2232
-2.5775 START -0.2232
-2.5775 STATE -0.2232
-2.5775 STATION -0.2232
-2.5775 STOP -0.2232
-2.5775 STRONGER -0.2232
-2.5775 SURE -0.2232
-2.5775 TEN -0.2232
-2.5775 TERMINATE -0.2232
-2.5775 THREE -0.2232
-2.5775 TWO -0.2232
-2.2765 UP -0.2232
-2.5775 WAKE -0.2987
-2.5775 WAY -0.2232
-2.5775 WEAKER -0.2232
-2.5775 WHICH -0.2232
-2.5775 YEP -0.2232
-2.5775 YES -0.2232
-2.5775 ZERO -0.2232

\2-grams:
-2.0934 <s> ABSOLUTELY 0.0000
-2.0934 <s> AGAIN 0.0000
-2.0934 <s> BAD 0.0000
-2.0934 <s> BEGIN 0.0000
-2.0934 <s> CANCEL 0.0000
-2.0934 <s> CURRENT 0.0000
-2.0934 <s> FIRST 0.0000
-2.0934 <s> FIVE 0.0000
-2.0934 <s> FOUR 0.0000
-2.0934 <s> GOOD 0.0000
-2.0934 <s> GOODBYE 0.0000
-2.0934 <s> HALT 0.0000
-2.0934 <s> HEIGHT 0.0000
-2.0934 <s> HEY 0.0000
-2.0934 <s> HI 0.0000
-2.0934 <s> LAST 0.0000
-2.0934 <s> LESS 0.0000
-2.0934 <s> LISTEN 0.0000
-2.0934 <s> LOUD 0.0000
-2.0934 <s> LOUDER 0.0000
-2.0934 <s> LOWER 0.0000
-2.0934 <s> MINUS 0.0000
-2.0934 <s> MORE 0.0000
-2.0934 <s> MUSIC 0.0000
-2.0934 <s> NEXT 0.0000
-2.0934 <s> NINE 0.0000
-1.7924 <s> NO 0.0000
-2.0934 <s> NOPE 0.0000
-2.0934 <s> OKAY 0.0000
-2.0934 <s> ONE 0.0000
-2.0934 <s> PLAY 0.0000
-2.0934 <s> PLUS 0.0000
-2.0934 <s> PREVIOUS 0.0000
-2.0934 <s> QUIET 0.0000
-2.0934 <s> RADIO 0.0000
-2.0934 <s> RUN 0.0000
-2.0934 <s> SELECTED 0.0000
-2.0934 <s> SEVEN 0.0000
-2.0934 <s> SHUT 0.0000
-2.0934 <s> SHUTDOWN 0.0000
-2.0934 <s> SILENCE 0.0000
-2.0934 <s> SIX 0.0000
-2.0934 <s> SLEEP 0.0000
-2.0934 <s> SOFT 0.0000
-2.0934 <s> SOFTER 0.0000
-2.0934 <s> START 0.0000
-2.0934 <s> STATE 0.0000
-2.0934 <s> STATION 0.0000
-2.0934 <s> STOP 0.0000
-2.0934 <s> STRONGER 0.0000
-2.0934 <s> SURE 0.0000
-2.0934 <s> TEN 0.0000
-2.0934 <s> TERMINATE 0.0000
-2.0934 <s> THREE 0.0000
-2.0934 <s> TWO 0.0000
-2.0934 <s> WAKE 0.0000
-2.0934 <s> WEAKER 0.0000
-2.0934 <s> WHICH 0.0000
-2.0934 <s> YEP 0.0000
-2.0934 <s> YES 0.0000
-2.0934 <s> ZERO 0.0000
-0.3010 ABSOLUTELY </s> -0.3010
-0.3010 AGAIN </s> -0.3010
-0.3010 BAD </s> -0.3010
-0.3010 BEGIN </s> -0.3010
-0.3010 CANCEL </s> -0.3010
-0.3010 CURRENT </s> -0.3010
-0.3010 FIRST </s> -0.3010
-0.3010 FIVE </s> -0.3010
-0.3010 FOUR </s> -0.3010
-0.3010 GOOD </s> -0.3010
-0.3010 GOODBYE </s> -0.3010
-0.3010 HALT </s> -0.3010
-0.3010 HEIGHT </s> -0.3010
-0.3010 HEY </s> -0.3010
-0.3010 HI </s> -0.3010
-0.3010 LAST </s> -0.3010
-0.3010 LESS </s> -0.3010
-0.3010 LISTEN </s> -0.3010
-0.3010 LOUD </s> -0.3010
-0.3010 LOUDER </s> -0.3010
-0.3010 LOWER </s> -0.3010
-0.3010 MINUS </s> -0.3010
-0.3010 MORE </s> -0.3010
-0.3010 MUSIC </s> -0.3010
-0.3010 NEXT </s> -0.3010
-0.3010 NINE </s> -0.3010
-0.6021 NO </s> -0.3010
-0.6021 NO WAY 0.0000
-0.3010 NOPE </s> -0.3010
-0.3010 OKAY </s> -0.3010
-0.3010 ONE </s> -0.3010
-0.3010 PLAY </s> -0.3010
-0.3010 PLUS </s> -0.3010
-0.3010 PREVIOUS </s> -0.3010
-0.3010 QUIET </s> -0.3010
-0.3010 RADIO </s> -0.3010
-0.3010 RUN </s> -0.3010
-0.3010 SELECTED </s> -0.3010
-0.3010 SEVEN </s> -0.3010
-0.3010 SHUT UP 0.0000
-0.3010 SHUTDOWN </s> -0.3010
-0.3010 SILENCE </s> -0.3010
-0.3010 SIX </s> -0.3010
-0.3010 SLEEP </s> -0.3010
-0.3010 SOFT </s> -0.3010
-0.3010 SOFTER </s> -0.3010
-0.3010 START </s> -0.3010
-0.3010 STATE </s> -0.3010
-0.3010 STATION </s> -0.3010
-0.3010 STOP </s> -0.3010
-0.3010 STRONGER </s> -0.3010
-0.3010 SURE </s> -0.3010
-0.3010 TEN </s> -0.3010
-0.3010 TERMINATE </s> -0.3010
-0.3010 THREE </s> -0.3010
-0.3010 TWO </s> -0.3010
-0.3010 UP </s> -0.3010
-0.3010 WAKE UP 0.0000
-0.3010 WAY </s> -0.3010
-0.3010 WEAKER </s> -0.3010
-0.3010 WHICH </s> -0.3010
-0.3010 YEP </s> -0.3010
-0.3010 YES </s> -0.3010
-0.3010 ZERO </s> -0.3010

\3-grams:
-0.3010 <s> ABSOLUTELY </s>
-0.3010 <s> AGAIN </s>
-0.3010 <s> BAD </s>
-0.3010 <s> BEGIN </s>
-0.3010 <s> CANCEL </s>
-0.3010 <s> CURRENT </s>
-0.3010 <s> FIRST </s>
-0.3010 <s> FIVE </s>
-0.3010 <s> FOUR </s>
-0.3010 <s> GOOD </s>
-0.3010 <s> GOODBYE </s>
-0.3010 <s> HALT </s>
-0.3010 <s> HEIGHT </s>
-0.3010 <s> HEY </s>
-0.3010 <s> HI </s>
-0.3010 <s> LAST </s>
-0.3010 <s> LESS </s>
-0.3010 <s> LISTEN </s>
-0.3010 <s> LOUD </s>
-0.3010 <s> LOUDER </s>
-0.3010 <s> LOWER </s>
-0.3010 <s> MINUS </s>
-0.3010 <s> MORE </s>
-0.3010 <s> MUSIC </s>
-0.3010 <s> NEXT </s>
-0.3010 <s> NINE </s>
-0.6021 <s> NO </s>
-0.6021 <s> NO WAY
-0.3010 <s> NOPE </s>
-0.3010 <s> OKAY </s>
-0.3010 <s> ONE </s>
-0.3010 <s> PLAY </s>
-0.3010 <s> PLUS </s>
-0.3010 <s> PREVIOUS </s>
-0.3010 <s> QUIET </s>
-0.3010 <s> RADIO </s>
-0.3010 <s> RUN </s>
-0.3010 <s> SELECTED </s>
-0.3010 <s> SEVEN </s>
-0.3010 <s> SHUT UP
-0.3010 <s> SHUTDOWN </s>
-0.3010 <s> SILENCE </s>
-0.3010 <s> SIX </s>
-0.3010 <s> SLEEP </s>
-0.3010 <s> SOFT </s>
-0.3010 <s> SOFTER </s>
-0.3010 <s> START </s>
-0.3010 <s> STATE </s>
-0.3010 <s> STATION </s>
-0.3010 <s> STOP </s>
-0.3010 <s> STRONGER </s>
-0.3010 <s> SURE </s>
-0.3010 <s> TEN </s>
-0.3010 <s> TERMINATE </s>
-0.3010 <s> THREE </s>
-0.3010 <s> TWO </s>
-0.3010 <s> WAKE UP
-0.3010 <s> WEAKER </s>
-0.3010 <s> WHICH </s>
-0.3010 <s> YEP </s>
-0.3010 <s> YES </s>
-0.3010 <s> ZERO </s>
-0.3010 NO WAY </s>
-0.3010 SHUT UP </s>
-0.3010 WAKE UP </s>

\end\
